#pragma once
#include <cstdarg>
namespace Eloquent {
    namespace ML {
        namespace Port {
            class PCA {
                public:
                    /**
                    * Apply dimensionality reduction
                    * @warn Will override the source vector if no dest provided!
                    */
                    void transform(float *x, float *dest = NULL) {
                        static float u[2] = { 0 };
                        u[0] = dot(x,   0.222021605934  , 0.112753989015  , 0.230366060381  , 0.222197826014  , 0.145657751759  , 0.238690561681  , 0.259126316452  , 0.260486575977  , 0.138850481399  , 0.055933795508  , 0.20805887579  , 0.022374545325  , 0.214122051796  , 0.199201050479  , 0.021645281353  , 0.172166715012  , 0.15792201558  , 0.186773333102  , 0.039266121609  , 0.102509110879  , 0.227354106767  , 0.108081743968  , 0.237028373238  , 0.222021054241  , 0.126480243762  , 0.205644017915  , 0.228470521456  , 0.250857718156  , 0.107110513347  , 0.1221409913 );
                        u[1] = dot(x,   -0.225057124087  , -0.045340495595  , -0.206596181202  , -0.227310774376  , 0.181495621862  , 0.153110724273  , 0.058161340282  , -0.034456832017  , 0.192915654563  , 0.362217678017  , -0.121801630469  , 0.09490559609  , -0.103453657078  , -0.163842514378  , 0.198515425734  , 0.235352022816  , 0.197888176918  , 0.136201612912  , 0.170861620149  , 0.281962274454  , -0.217598812568  , -0.035219723031  , -0.196137393449  , -0.223110502294  , 0.175936249365  , 0.15322263007  , 0.106648318104  , 0.000191433606  , 0.135886727872  , 0.282606251639 );
                        memcpy(dest != NULL ? dest : x, u, sizeof(float) * 2);
                    }

                protected:
                    /**
                    * Compute dot product with varargs
                    */
                    float dot(float *x, ...) {
                        va_list w;
                        va_start(w, 30);
                        static float mean[] = {  -0.0 , 0.0 , -0.0 , -0.0 , 0.0 , -0.0 , -0.0 , 0.0 , -0.0 , -0.0 , -0.0 , 0.0 , -0.0 , 0.0 , 0.0 , -0.0 , 0.0 , -0.0 , 0.0 , 0.0 , 0.0 , -0.0 , -0.0 , 0.0 , 0.0 , -0.0 , 0.0 , -0.0 , -0.0 , -0.0  };
                        float dot = 0.0;

                        for (uint16_t i = 0; i < 30; i++) {
                            dot += (x[i] - mean[i]) * va_arg(w, double);
                        }

                        return dot;
                    }
                };
            }
        }
    }